18 10
11 -0.028050 -0.036921 -0.043619 -0.034972 -0.009135 -0.048495 -0.024612 0.019856 0.046836 -0.017590
6 -0.033504 -0.012340 -0.037308 -0.038440 0.021377 0.048612 -0.004524 -0.025794 -0.049432 0.043651
0 0.025540 -0.022267 0.007598 -0.035478 -0.048658 -0.015863 0.008101 0.021703 -0.023158 0.041861
9 0.003186 -0.045403 -0.018626 -0.014216 0.049659 0.043553 -0.012829 -0.019346 0.017950 -0.041506
2 -0.019387 0.014596 -0.032763 0.019665 -0.048595 0.040608 -0.026552 0.049431 -0.035702 0.043674
3 0.018702 0.008503 -0.032328 -0.047806 0.048011 0.025896 -0.027598 -0.004246 0.004622 0.019707
4 -0.033386 -0.018304 0.043804 -0.003668 0.037148 0.048659 -0.024368 -0.033285 -0.021622 -0.002615
10 0.043465 0.029329 -0.002286 0.012191 -0.037451 0.015722 -0.019718 0.005878 -0.025716 -0.024445
15 -0.046858 -0.033024 -0.030117 0.040006 0.009019 0.022899 0.046005 -0.048349 0.048533 0.047019
8 -0.037125 -0.046656 -0.038667 0.047272 0.026059 0.048416 -0.016440 -0.000575 0.027020 -0.012772
12 0.006926 -0.013152 -0.027310 0.024378 0.042965 -0.013283 -0.040380 0.009112 -0.006096 0.036063
14 0.008488 0.021638 -0.039128 -0.036548 -0.008671 0.047779 0.019592 0.046216 -0.049736 0.027698
5 -0.016715 0.022981 -0.047216 0.038146 -0.032158 0.010131 0.033353 0.008688 0.044574 0.032642
16 0.039432 0.036870 -0.001133 -0.001527 0.024284 0.035869 0.021354 0.041837 -0.022072 -0.019188
1 -0.016727 -0.033902 0.026291 -0.023333 0.006022 0.003835 -0.020854 -0.029944 -0.022366 0.030845
17 0.020901 -0.001810 -0.044809 -0.045509 -0.019324 0.009372 -0.042127 0.001096 0.018411 0.015638
7 -0.012525 -0.045845 0.048305 0.026075 0.012971 0.010933 0.006548 -0.029146 0.036299 0.034956
13 0.011994 -0.003628 0.039086 -0.039331 0.045600 0.004312 -0.014918 0.012711 -0.049689 0.024418
