18 10
1 -0.000380 0.040739 -0.004107 0.011633 -0.022587 -0.017902 -0.030626 -0.034581 0.026627 -0.025079
17 -0.046096 -0.018072 -0.026162 0.028351 -0.009484 -0.002391 -0.039550 -0.026153 0.010749 -0.024277
8 0.029825 -0.018323 -0.009833 0.035103 -0.008923 0.010690 0.049992 -0.035477 -0.005639 -0.029550
2 -0.018017 -0.023503 0.024644 0.007375 0.027318 -0.044743 -0.031572 -0.036494 0.009236 0.044970
6 -0.042488 -0.031776 -0.015422 0.019807 -0.043150 -0.026272 -0.018048 0.019638 -0.003603 0.037714
10 -0.017613 0.025281 0.049747 -0.030733 0.008317 0.042825 -0.003567 0.025977 -0.030487 -0.022358
16 0.017381 0.040137 0.043501 -0.026240 -0.010812 -0.011012 -0.022056 0.011557 0.046202 -0.010810
11 0.029771 0.008968 -0.032360 -0.024383 0.008072 0.019816 -0.024557 0.035569 0.024198 0.001937
0 -0.025596 0.031942 0.039459 0.041104 0.003480 -0.010905 -0.021864 -0.033880 0.025995 0.016599
3 0.033692 0.029597 0.019293 0.030066 -0.040234 0.015277 0.007683 0.032846 0.043323 -0.034975
9 -0.045697 0.044403 -0.000589 0.022243 0.044118 0.015023 0.026993 0.026864 0.007788 -0.020065
13 0.008591 -0.044289 -0.020892 -0.032642 -0.002196 -0.043293 -0.019080 -0.039852 0.019289 0.045627
5 0.003606 0.031735 -0.024390 -0.040689 -0.005979 -0.035332 0.041801 0.031453 0.041580 0.048702
4 -0.020515 -0.014628 0.002019 0.034209 0.020160 0.026881 -0.004354 0.016487 -0.020392 -0.033838
7 -0.000987 0.024604 -0.033237 -0.039512 -0.043567 -0.003639 0.027116 0.021141 0.006272 -0.004000
15 0.016961 -0.021319 -0.046901 -0.011684 0.017971 0.038680 0.043581 0.015494 0.006947 0.034415
14 0.008348 0.010926 -0.011736 0.032738 -0.025389 0.038072 -0.011967 0.046395 -0.017105 0.043305
12 -0.013939 0.043640 0.013282 0.015932 -0.035508 0.038055 0.044994 -0.018118 0.015665 0.042802
