18 10
9 0.035201 0.006277 0.049717 0.021447 -0.003477 0.026061 -0.044316 -0.032521 -0.034795 0.004561
8 -0.011752 0.001640 0.016446 -0.002932 0.030419 0.038174 0.016716 -0.025036 0.031724 -0.032348
3 -0.005388 0.010257 0.020978 0.005724 0.035742 0.004646 -0.013442 0.034793 0.017805 0.021082
10 -0.030793 -0.021545 0.006536 0.028183 -0.012189 0.023587 -0.027202 0.047371 0.001040 0.042116
4 -0.034358 -0.024255 0.037724 0.044067 0.008780 -0.035578 -0.040309 -0.030333 0.007608 0.006392
11 -0.000855 -0.021455 0.046698 -0.026714 0.032588 0.002555 0.017701 0.037481 -0.002129 0.036702
2 -0.020618 -0.020839 0.007352 -0.020095 -0.004767 -0.024251 -0.032692 -0.034375 0.024770 0.005520
0 0.039552 -0.030052 -0.045121 0.019825 0.019929 -0.046249 0.036863 0.009751 -0.049951 0.034403
1 -0.001777 0.040872 -0.006438 -0.010856 0.018777 -0.027524 0.013468 -0.005272 0.017445 0.005611
5 -0.003872 -0.011694 -0.045933 0.010272 0.046507 0.035691 -0.033686 -0.023851 0.005145 -0.016711
14 0.031852 -0.047630 0.030968 -0.045312 0.004275 -0.006476 -0.015179 0.034041 0.023543 0.021772
13 0.042272 0.037118 0.024076 -0.021238 -0.011047 0.049021 -0.011832 -0.017398 0.027874 -0.041720
15 0.003936 0.047960 0.047633 0.041183 -0.022836 0.040382 0.026253 0.007307 -0.025428 0.037560
17 0.008374 -0.039256 0.024786 0.035987 0.028542 -0.010044 0.030671 -0.014199 -0.030345 0.041212
6 0.042016 -0.023395 0.019110 0.004666 0.036377 0.040236 0.049897 -0.014579 -0.042593 -0.040865
16 -0.043364 0.013707 0.049765 -0.013091 -0.018328 -0.040183 0.045744 0.048230 0.009541 -0.032855
12 0.004361 0.034072 -0.039972 0.014284 0.032543 0.018981 0.028144 -0.048267 0.038115 -0.012414
7 -0.039410 -0.017593 -0.015755 0.043547 -0.011904 0.005229 0.049279 -0.000701 0.030332 0.014737
