18 20
0 -0.020976 -0.017342 -0.004726 -0.000718 -0.017032 -0.021304 0.016887 0.022559 0.017242 -0.011103 0.013875 0.019383 -0.005147 0.002175 -0.017343 -0.012347 -0.010365 0.011655 0.004260 -0.012975
4 0.015844 0.017726 -0.019178 0.003226 0.022439 0.015019 0.002101 -0.023683 0.024274 -0.024373 -0.004069 0.013477 0.017298 -0.008514 0.015052 -0.007026 0.020442 -0.006040 -0.022505 -0.004645
3 -0.005812 0.019870 -0.009887 -0.009958 -0.016243 0.022668 0.018192 0.015518 0.006563 0.014245 -0.021534 0.002639 0.024396 -0.007499 -0.010447 -0.002356 -0.009280 0.016172 -0.000491 -0.019759
1 -0.000851 0.017325 0.002937 -0.013652 -0.010952 -0.003094 -0.007669 -0.015003 -0.008467 0.021300 0.006544 0.007698 0.005201 0.000156 -0.004360 -0.010545 -0.023643 0.015494 0.022139 -0.010139
2 0.005248 0.020269 -0.008334 0.000301 -0.004302 0.006166 0.015884 0.006869 0.018729 0.022659 -0.002111 0.000352 -0.006142 -0.006075 -0.004824 -0.001593 0.006751 0.010465 -0.016125 0.016667
6 -0.024546 -0.001608 -0.024016 0.005002 0.006477 -0.013865 -0.000881 0.022777 0.004686 -0.007970 0.007336 0.015143 0.004193 -0.004266 0.023149 0.008228 0.024590 0.021797 0.008191 0.021273
10 -0.014356 -0.011549 -0.007028 -0.011158 0.000500 -0.019265 -0.001651 -0.002188 0.015548 -0.011175 0.009488 0.019399 0.006629 -0.009063 -0.019413 0.017759 0.021373 0.017099 0.002432 0.002269
5 0.014713 0.005119 -0.013318 0.004025 -0.017879 -0.016748 -0.018671 -0.021227 -0.006019 0.004998 0.005535 0.000453 0.006018 0.011123 -0.015072 0.023404 -0.018169 0.008755 0.013501 0.023531
9 0.015587 0.011636 0.023969 0.003619 0.002977 -0.000773 -0.002964 -0.008817 0.019116 -0.024501 0.008625 0.018781 -0.009786 0.008668 -0.009656 0.009498 -0.015678 0.005231 0.019671 0.023689
8 -0.006926 -0.006967 -0.014192 -0.002059 -0.020364 0.020378 -0.001701 -0.001391 -0.005437 0.017875 -0.010079 -0.017837 0.007556 -0.011703 -0.024640 0.012876 -0.012284 0.013137 0.014476 -0.001187
11 0.014838 -0.006189 0.021170 -0.011274 0.018707 0.004493 -0.019946 -0.012907 -0.017253 0.024717 0.015727 0.007811 0.004972 0.016822 0.009773 0.015415 -0.014504 -0.023856 0.014922 0.004376
14 -0.023305 -0.014746 0.011582 0.024030 0.004618 -0.023895 -0.005729 0.009777 0.002462 0.008507 -0.014307 -0.009196 -0.007115 -0.018319 0.001244 -0.001966 -0.005522 -0.018464 -0.001174 -0.012982
17 -0.017037 0.019241 0.021141 0.019467 0.011613 0.001920 -0.024734 -0.019680 -0.021226 0.012182 0.006816 -0.012202 0.021056 0.011910 -0.016806 0.013626 0.004924 -0.020127 0.015339 0.011910
15 0.019280 -0.011216 0.019225 0.000931 0.023633 0.018091 -0.004998 -0.018260 -0.007388 0.015148 0.008180 0.007287 0.000897 0.018740 -0.021987 0.003603 -0.001611 0.013226 0.001752 0.019331
7 0.003540 -0.002059 0.007645 -0.009694 0.001441 0.001385 0.007047 -0.004135 -0.019043 0.020372 0.011245 -0.014565 0.010883 0.011460 0.018788 0.023296 -0.011800 0.014708 0.000088 -0.017220
16 0.017153 -0.008838 -0.006990 -0.005984 -0.013312 -0.004166 -0.012506 0.001903 -0.015210 -0.003888 -0.023900 -0.022063 -0.008092 -0.001659 0.009453 -0.000572 -0.005443 -0.015562 0.004850 -0.024735
13 0.000280 -0.022931 0.015814 0.016957 0.003306 0.017415 -0.015815 0.008508 0.008926 -0.004428 -0.012040 -0.013019 0.001949 -0.003420 -0.024043 0.003016 -0.022480 -0.000124 -0.002747 0.015806
12 0.005223 0.001230 -0.015264 0.022620 -0.004361 0.001549 -0.015974 -0.015837 0.000187 -0.023992 0.011923 0.000210 0.018770 0.002020 -0.002050 -0.007604 0.015132 -0.015602 0.003595 -0.007239
