10 10
1 0.037809 0.028104 0.034546 -0.045831 0.044624 0.016730 -0.023124 -0.036697 -0.007361 0.019592
6 -0.048448 -0.000716 0.008642 -0.036885 0.010510 0.028850 -0.039403 -0.016369 0.042865 0.046449
8 -0.034960 0.030042 -0.047337 -0.018107 -0.031169 0.006461 0.047784 0.019903 -0.007061 0.009914
5 0.014398 0.019646 -0.002852 -0.006007 0.005665 -0.035431 -0.002570 -0.044464 0.049258 0.030733
7 -0.046620 0.029696 -0.027193 0.006370 0.018830 -0.009548 -0.026958 -0.026360 0.011897 0.027331
4 -0.015646 -0.048299 -0.019378 0.035015 -0.014824 -0.033372 0.026991 -0.018337 -0.003633 -0.025441
2 0.000052 0.008188 0.019234 -0.035608 0.040731 -0.019715 0.034698 0.032079 0.013235 -0.030666
0 -0.038698 0.010552 0.044868 -0.002052 0.000364 -0.033581 0.045130 -0.002435 -0.009159 -0.046704
3 -0.031434 0.036986 -0.048464 -0.046861 -0.049266 0.015188 0.023372 0.049077 0.017957 0.014095
9 0.036163 0.020746 0.010837 0.018073 -0.033751 0.011701 0.001730 -0.047169 -0.028838 0.003685
